digraph Tree {
node [shape=box] ;
0 [label="PCT_SNAP16 <= 13.521\nmse = 4.912\nsamples = 1885\nvalue = 11.206"] ;
1 [label="PC_FSRSALES12 <= 744.346\nmse = 3.251\nsamples = 955\nvalue = 10.175"] ;
0 -> 1 [labeldistance=2.5, labelangle=45, headlabel="True"] ;
2 [label="POVRATE15 <= 9.95\nmse = 3.068\nsamples = 836\nvalue = 10.403"] ;
1 -> 2 ;
3 [label="RECFACPTH14 <= 0.092\nmse = 1.701\nsamples = 194\nvalue = 9.428"] ;
2 -> 3 ;
4 [label="SODA_PRICE10 <= 0.964\nmse = 1.445\nsamples = 88\nvalue = 9.86"] ;
3 -> 4 ;
5 [label="mse = 1.383\nsamples = 17\nvalue = 10.894"] ;
4 -> 5 ;
6 [label="mse = 1.142\nsamples = 71\nvalue = 9.613"] ;
4 -> 6 ;
7 [label="CSA12 <= 5.214\nmse = 1.629\nsamples = 106\nvalue = 9.069"] ;
3 -> 7 ;
8 [label="mse = 1.729\nsamples = 74\nvalue = 9.359"] ;
7 -> 8 ;
9 [label="mse = 0.751\nsamples = 32\nvalue = 8.397"] ;
7 -> 9 ;
10 [label="FOODINSEC_13_15 <= 10.65\nmse = 3.108\nsamples = 642\nvalue = 10.697"] ;
2 -> 10 ;
11 [label="SPECSPTH14 <= 0.041\nmse = 1.434\nsamples = 67\nvalue = 9.148"] ;
10 -> 11 ;
12 [label="mse = 1.007\nsamples = 16\nvalue = 10.025"] ;
11 -> 12 ;
13 [label="mse = 1.251\nsamples = 51\nvalue = 8.873"] ;
11 -> 13 ;
14 [label="FOODINSEC_13_15 <= 11.45\nmse = 2.99\nsamples = 575\nvalue = 10.878"] ;
10 -> 14 ;
15 [label="mse = 2.861\nsamples = 111\nvalue = 12.188"] ;
14 -> 15 ;
16 [label="mse = 2.512\nsamples = 464\nvalue = 10.564"] ;
14 -> 16 ;
17 [label="FOODINSEC_13_15 <= 12.15\nmse = 1.607\nsamples = 119\nvalue = 8.574"] ;
1 -> 17 ;
18 [label="SODA_PRICE10 <= 1.092\nmse = 0.065\nsamples = 40\nvalue = 7.612"] ;
17 -> 18 ;
19 [label="mse = 0.051\nsamples = 38\nvalue = 7.589"] ;
18 -> 19 ;
20 [label="mse = 0.123\nsamples = 2\nvalue = 8.05"] ;
18 -> 20 ;
21 [label="SPECSPTH14 <= 0.007\nmse = 1.683\nsamples = 79\nvalue = 9.061"] ;
17 -> 21 ;
22 [label="mse = 2.544\nsamples = 18\nvalue = 10.133"] ;
21 -> 22 ;
23 [label="RECFACPTH14 <= 0.099\nmse = 0.989\nsamples = 61\nvalue = 8.744"] ;
21 -> 23 ;
24 [label="mse = 1.008\nsamples = 23\nvalue = 9.248"] ;
23 -> 24 ;
25 [label="mse = 0.731\nsamples = 38\nvalue = 8.439"] ;
23 -> 25 ;
26 [label="POVRATE15 <= 18.35\nmse = 4.405\nsamples = 930\nvalue = 12.264"] ;
0 -> 26 [labeldistance=2.5, labelangle=-45, headlabel="False"] ;
27 [label="PC_FSRSALES12 <= 692.951\nmse = 3.201\nsamples = 500\nvalue = 11.373"] ;
26 -> 27 ;
28 [label="RECFACPTH14 <= 0.016\nmse = 2.792\nsamples = 331\nvalue = 11.933"] ;
27 -> 28 ;
29 [label="PC_FSRSALES12 <= 530.287\nmse = 1.529\nsamples = 67\nvalue = 13.11"] ;
28 -> 29 ;
30 [label="mse = 1.028\nsamples = 11\nvalue = 14.245"] ;
29 -> 30 ;
31 [label="mse = 1.325\nsamples = 56\nvalue = 12.888"] ;
29 -> 31 ;
32 [label="CONVSPTH14 <= 0.381\nmse = 2.671\nsamples = 264\nvalue = 11.634"] ;
28 -> 32 ;
33 [label="mse = 2.29\nsamples = 70\nvalue = 10.687"] ;
32 -> 33 ;
34 [label="mse = 2.369\nsamples = 194\nvalue = 11.975"] ;
32 -> 34 ;
35 [label="GROCPTH14 <= 0.149\nmse = 2.185\nsamples = 169\nvalue = 10.276"] ;
27 -> 35 ;
36 [label="MILK_SODA_PRICE10 <= 1.056\nmse = 2.327\nsamples = 42\nvalue = 11.133"] ;
35 -> 36 ;
37 [label="mse = 1.174\nsamples = 31\nvalue = 10.674"] ;
36 -> 37 ;
38 [label="mse = 3.309\nsamples = 11\nvalue = 12.427"] ;
36 -> 38 ;
39 [label="RECFACPTH14 <= 0.067\nmse = 1.815\nsamples = 127\nvalue = 9.992"] ;
35 -> 39 ;
40 [label="mse = 2.175\nsamples = 38\nvalue = 10.745"] ;
39 -> 40 ;
41 [label="mse = 1.316\nsamples = 89\nvalue = 9.671"] ;
39 -> 41 ;
42 [label="MILK_SODA_PRICE10 <= 0.882\nmse = 3.805\nsamples = 430\nvalue = 13.301"] ;
26 -> 42 ;
43 [label="SODA_PRICE10 <= 1.037\nmse = 5.271\nsamples = 88\nvalue = 11.67"] ;
42 -> 43 ;
44 [label="CSA12 <= 3.5\nmse = 4.536\nsamples = 62\nvalue = 12.402"] ;
43 -> 44 ;
45 [label="mse = 2.603\nsamples = 36\nvalue = 13.322"] ;
44 -> 45 ;
46 [label="mse = 4.415\nsamples = 26\nvalue = 11.127"] ;
44 -> 46 ;
47 [label="mse = 2.71\nsamples = 26\nvalue = 9.927"] ;
43 -> 47 ;
48 [label="FSRPTH14 <= 0.687\nmse = 2.568\nsamples = 342\nvalue = 13.721"] ;
42 -> 48 ;
49 [label="PC_FSRSALES12 <= 534.688\nmse = 2.029\nsamples = 283\nvalue = 13.935"] ;
48 -> 49 ;
50 [label="mse = 1.365\nsamples = 93\nvalue = 14.486"] ;
49 -> 50 ;
51 [label="mse = 2.134\nsamples = 190\nvalue = 13.666"] ;
49 -> 51 ;
52 [label="CSA12 <= 10.5\nmse = 3.869\nsamples = 59\nvalue = 12.692"] ;
48 -> 52 ;
53 [label="mse = 2.735\nsamples = 55\nvalue = 13.0"] ;
52 -> 53 ;
54 [label="mse = 0.162\nsamples = 4\nvalue = 8.45"] ;
52 -> 54 ;
}